<?xml version="1.0"?>
<opencv_storage>
<cascade>
  <stageType>BOOST</stageType>
  <featureType>HAAR</featureType>
  <height>20</height>
  <width>20</width>
  <stageParams>
    <boostType>GAB</boostType>
    <minHitRate>9.9900001287460327e-01</minHitRate>
    <maxFalseAlarm>5.0000000000000000e-01</maxFalseAlarm>
    <weightTrimRate>9.4999999999999996e-01</weightTrimRate>
    <maxDepth>1</maxDepth>
    <maxWeakCount>100</maxWeakCount></stageParams>
  <featureParams>
    <maxCatCount>0</maxCatCount>
    <featSize>1</featSize>
    <mode>ALL</mode></featureParams>
  <stageNum>11</stageNum>
  <stages>
    <!-- stage 0 -->
    <_>
      <maxWeakCount>4</maxWeakCount>
      <stageThreshold>-3.9841312170028687e-01</stageThreshold>
      <weakClassifiers>
        <_>
          <internalNodes>
            0 -1 3 -7.2529189288616180e-02</internalNodes>
          <leafValues>
            9.5312500000000000e-01 -3.7500000000000000e-01</leafValues></_>
        <_>
          <internalNodes>
            0 -1 19 -6.7107424139976501e-02</internalNodes>
          <leafValues>
            9.5414197444915771e-01 -1.8810820579528809e-01</leafValues></_>
        <_>
          <internalNodes>
            0 -1 29 6.1728693544864655e-03</internalNodes>
          <leafValues>
            -5.4282659292221069e-01 6.6489881277084351e-01</leafValues></_>
        <_>
          <internalNodes>
            0 -1 27 -7.9135280102491379e-03</internalNodes>
          <leafValues>
            9.0641289949417114e-01 -4.3472850322723389e-01</leafValues></_></weakClassifiers></_>
    <!-- stage 1 -->
    <_>
      <maxWeakCount>4</maxWeakCount>
      <stageThreshold>-4.3307057023048401e-01</stageThreshold>
      <weakClassifiers>
        <_>
          <internalNodes>
            0 -1 17 -6.0048447921872139e-03</internalNodes>
          <leafValues>
            9.2063492536544800e-01 -3.1578946113586426e-01</leafValues></_>
        <_>
          <internalNodes>
            0 -1 30 -7.4521219357848167e-04</internalNodes>
          <leafValues>
            -7.1495145559310913e-01 5.8990991115570068e-01</leafValues></_>
        <_>
          <internalNodes>
            0 -1 44 -2.7804771438241005e-02</internalNodes>
          <leafValues>
            9.6096879243850708e-01 -3.4718903899192810e-01</leafValues></_>
        <_>
          <internalNodes>
            0 -1 12 5.6595109403133392e-02</internalNodes>
          <leafValues>
            -2.9156503081321716e-01 1.</leafValues></_></weakClassifiers></_>
    <!-- stage 2 -->
    <_>
      <maxWeakCount>5</maxWeakCount>
      <stageThreshold>-7.3379628360271454e-02</stageThreshold>
      <weakClassifiers>
        <_>
          <internalNodes>
            0 -1 9 -9.7402855753898621e-02</internalNodes>
          <leafValues>
            8.6046510934829712e-01 -2.7927929162979126e-01</leafValues></_>
        <_>
          <internalNodes>
            0 -1 15 -7.8153133392333984e-02</internalNodes>
          <leafValues>
            1. -2.0522370934486389e-01</leafValues></_>
        <_>
          <internalNodes>
            0 -1 10 4.9472548067569733e-02</internalNodes>
          <leafValues>
            -2.6882311701774597e-01 1.</leafValues></_>
        <_>
          <internalNodes>
            0 -1 18 -1.1592796444892883e-01</internalNodes>
          <leafValues>
            1. -2.4322177469730377e-01</leafValues></_>
        <_>
          <internalNodes>
            0 -1 37 1.1515311151742935e-01</internalNodes>
          <leafValues>
            -2.1657614409923553e-01 9.7559732198715210e-01</leafValues></_></weakClassifiers></_>
    <!-- stage 3 -->
    <_>
      <maxWeakCount>5</maxWeakCount>
      <stageThreshold>-9.7718670964241028e-02</stageThreshold>
      <weakClassifiers>
        <_>
          <internalNodes>
            0 -1 16 -7.5168378651142120e-02</internalNodes>
          <leafValues>
            9.7938144207000732e-01 -1.0489510744810104e-01</leafValues></_>
        <_>
          <internalNodes>
            0 -1 21 2.5423816405236721e-03</internalNodes>
          <leafValues>
            4.4119724631309509e-01 -8.5357242822647095e-01</leafValues></_>
        <_>
          <internalNodes>
            0 -1 20 -1.0191076993942261e-01</internalNodes>
          <leafValues>
            9.7761124372482300e-01 -3.2034885883331299e-01</leafValues></_>
        <_>
          <internalNodes>
            0 -1 28 5.4694293066859245e-03</internalNodes>
          <leafValues>
            4.6840125322341919e-01 -6.7025160789489746e-01</leafValues></_>
        <_>
          <internalNodes>
            0 -1 25 7.8567653894424438e-02</internalNodes>
          <leafValues>
            -3.7158006429672241e-01 9.6653044223785400e-01</leafValues></_></weakClassifiers></_>
    <!-- stage 4 -->
    <_>
      <maxWeakCount>5</maxWeakCount>
      <stageThreshold>-4.2422038316726685e-01</stageThreshold>
      <weakClassifiers>
        <_>
          <internalNodes>
            0 -1 38 -5.7184342294931412e-03</internalNodes>
          <leafValues>
            -8.0487805604934692e-01 5.6783920526504517e-01</leafValues></_>
        <_>
          <internalNodes>
            0 -1 7 -8.4572732448577881e-02</internalNodes>
          <leafValues>
            9.5370811223983765e-01 -3.8180723786354065e-01</leafValues></_>
        <_>
          <internalNodes>
            0 -1 21 -1.6707043396309018e-03</internalNodes>
          <leafValues>
            -7.5334173440933228e-01 4.6161937713623047e-01</leafValues></_>
        <_>
          <internalNodes>
            0 -1 14 1.0328927636146545e-01</internalNodes>
          <leafValues>
            -3.7541195750236511e-01 9.3008482456207275e-01</leafValues></_>
        <_>
          <internalNodes>
            0 -1 35 8.1876106560230255e-04</internalNodes>
          <leafValues>
            5.1850134134292603e-01 -6.6644072532653809e-01</leafValues></_></weakClassifiers></_>
    <!-- stage 5 -->
    <_>
      <maxWeakCount>3</maxWeakCount>
      <stageThreshold>-6.0568913817405701e-02</stageThreshold>
      <weakClassifiers>
        <_>
          <internalNodes>
            0 -1 24 2.4788323789834976e-03</internalNodes>
          <leafValues>
            6.1052632331848145e-01 -7.2000002861022949e-01</leafValues></_>
        <_>
          <internalNodes>
            0 -1 5 -8.2874707877635956e-02</internalNodes>
          <leafValues>
            9.4769716262817383e-01 -3.4056890010833740e-01</leafValues></_>
        <_>
          <internalNodes>
            0 -1 4 1.1304780840873718e-01</internalNodes>
          <leafValues>
            -2.2279489040374756e-01 1.</leafValues></_></weakClassifiers></_>
    <!-- stage 6 -->
    <_>
      <maxWeakCount>5</maxWeakCount>
      <stageThreshold>-3.6503264307975769e-01</stageThreshold>
      <weakClassifiers>
        <_>
          <internalNodes>
            0 -1 23 -7.8122899867594242e-04</internalNodes>
          <leafValues>
            -5.3125000000000000e-01 6.4772725105285645e-01</leafValues></_>
        <_>
          <internalNodes>
            0 -1 22 -1.0105051100254059e-01</internalNodes>
          <leafValues>
            9.5905250310897827e-01 -3.1620934605598450e-01</leafValues></_>
        <_>
          <internalNodes>
            0 -1 48 5.8185838162899017e-02</internalNodes>
          <leafValues>
            -2.3782846331596375e-01 9.8020339012145996e-01</leafValues></_>
        <_>
          <internalNodes>
            0 -1 0 -1.1405913531780243e-01</internalNodes>
          <leafValues>
            1. -2.3659820854663849e-01</leafValues></_>
        <_>
          <internalNodes>
            0 -1 11 1.2999868392944336e-01</internalNodes>
          <leafValues>
            -2.2212390601634979e-01 9.6341311931610107e-01</leafValues></_></weakClassifiers></_>
    <!-- stage 7 -->
    <_>
      <maxWeakCount>3</maxWeakCount>
      <stageThreshold>1.8355110287666321e-01</stageThreshold>
      <weakClassifiers>
        <_>
          <internalNodes>
            0 -1 32 -2.2473374847322702e-03</internalNodes>
          <leafValues>
            -8.8888889551162720e-01 5.4901963472366333e-01</leafValues></_>
        <_>
          <internalNodes>
            0 -1 33 -5.1477323286235332e-03</internalNodes>
          <leafValues>
            -6.1048412322998047e-01 5.9908938407897949e-01</leafValues></_>
        <_>
          <internalNodes>
            0 -1 39 5.1832459867000580e-03</internalNodes>
          <leafValues>
            4.7335061430931091e-01 -8.8144654035568237e-01</leafValues></_></weakClassifiers></_>
    <!-- stage 8 -->
    <_>
      <maxWeakCount>6</maxWeakCount>
      <stageThreshold>-5.8784526586532593e-01</stageThreshold>
      <weakClassifiers>
        <_>
          <internalNodes>
            0 -1 42 6.3076778315007687e-03</internalNodes>
          <leafValues>
            5.6565654277801514e-01 -7.6190477609634399e-01</leafValues></_>
        <_>
          <internalNodes>
            0 -1 8 -1.7073604464530945e-01</internalNodes>
          <leafValues>
            9.7902625799179077e-01 -2.5679254531860352e-01</leafValues></_>
        <_>
          <internalNodes>
            0 -1 46 -8.8101648725569248e-04</internalNodes>
          <leafValues>
            -5.3289282321929932e-01 5.1335328817367554e-01</leafValues></_>
        <_>
          <internalNodes>
            0 -1 26 -4.9581471830606461e-03</internalNodes>
          <leafValues>
            -8.3300828933715820e-01 3.4081554412841797e-01</leafValues></_>
        <_>
          <internalNodes>
            0 -1 47 5.5297367274761200e-02</internalNodes>
          <leafValues>
            -4.2717045545578003e-01 7.4718266725540161e-01</leafValues></_>
        <_>
          <internalNodes>
            0 -1 45 -8.4553241729736328e-02</internalNodes>
          <leafValues>
            1. -2.7746155858039856e-01</leafValues></_></weakClassifiers></_>
    <!-- stage 9 -->
    <_>
      <maxWeakCount>6</maxWeakCount>
      <stageThreshold>1.7806848883628845e-01</stageThreshold>
      <weakClassifiers>
        <_>
          <internalNodes>
            0 -1 40 -1.1950007639825344e-02</internalNodes>
          <leafValues>
            -7.7272725105285645e-01 5.8163267374038696e-01</leafValues></_>
        <_>
          <internalNodes>
            0 -1 36 -2.0368834957480431e-03</internalNodes>
          <leafValues>
            -6.2090349197387695e-01 5.0490468740463257e-01</leafValues></_>
        <_>
          <internalNodes>
            0 -1 6 -1.0712414234876633e-01</internalNodes>
          <leafValues>
            9.2874956130981445e-01 -3.3716002106666565e-01</leafValues></_>
        <_>
          <internalNodes>
            0 -1 34 -1.6068397089838982e-03</internalNodes>
          <leafValues>
            -8.8804244995117188e-01 3.7466847896575928e-01</leafValues></_>
        <_>
          <internalNodes>
            0 -1 13 -1.2526330351829529e-01</internalNodes>
          <leafValues>
            8.1460541486740112e-01 -3.8506364822387695e-01</leafValues></_>
        <_>
          <internalNodes>
            0 -1 43 6.5971082076430321e-03</internalNodes>
          <leafValues>
            -3.6218845844268799e-01 7.9344624280929565e-01</leafValues></_></weakClassifiers></_>
    <!-- stage 10 -->
    <_>
      <maxWeakCount>4</maxWeakCount>
      <stageThreshold>-1.8652343750000000e-01</stageThreshold>
      <weakClassifiers>
        <_>
          <internalNodes>
            0 -1 1 -1.0887123644351959e-03</internalNodes>
          <leafValues>
            -5.1612901687622070e-01 6.2921351194381714e-01</leafValues></_>
        <_>
          <internalNodes>
            0 -1 41 -1.0009221732616425e-03</internalNodes>
          <leafValues>
            -8.0512791872024536e-01 4.1037225723266602e-01</leafValues></_>
        <_>
          <internalNodes>
            0 -1 31 -9.3900095671415329e-03</internalNodes>
          <leafValues>
            -7.9977285861968994e-01 3.5370644927024841e-01</leafValues></_>
        <_>
          <internalNodes>
            0 -1 2 -2.0749419927597046e-01</internalNodes>
          <leafValues>
            1. -3.6431545019149780e-01</leafValues></_></weakClassifiers></_></stages>
  <features>
    <_>
      <rects>
        <_>
          0 0 16 20 -1.</_>
        <_>
          0 5 16 10 2.</_></rects>
      <tilted>0</tilted></_>
    <_>
      <rects>
        <_>
          0 1 2 2 -1.</_>
        <_>
          1 1 1 2 2.</_></rects>
      <tilted>0</tilted></_>
    <_>
      <rects>
        <_>
          0 2 11 18 -1.</_>
        <_>
          0 8 11 6 3.</_></rects>
      <tilted>0</tilted></_>
    <_>
      <rects>
        <_>
          0 8 18 6 -1.</_>
        <_>
          6 10 6 2 9.</_></rects>
      <tilted>0</tilted></_>
    <_>
      <rects>
        <_>
          1 1 17 12 -1.</_>
        <_>
          1 5 17 4 3.</_></rects>
      <tilted>0</tilted></_>
    <_>
      <rects>
        <_>
          1 4 11 16 -1.</_>
        <_>
          1 8 11 8 2.</_></rects>
      <tilted>0</tilted></_>
    <_>
      <rects>
        <_>
          1 4 11 12 -1.</_>
        <_>
          1 10 11 6 2.</_></rects>
      <tilted>0</tilted></_>
    <_>
      <rects>
        <_>
          1 4 13 16 -1.</_>
        <_>
          1 8 13 8 2.</_></rects>
      <tilted>0</tilted></_>
    <_>
      <rects>
        <_>
          1 4 18 16 -1.</_>
        <_>
          1 8 18 8 2.</_></rects>
      <tilted>0</tilted></_>
    <_>
      <rects>
        <_>
          2 7 15 9 -1.</_>
        <_>
          7 10 5 3 9.</_></rects>
      <tilted>0</tilted></_>
    <_>
      <rects>
        <_>
          2 7 9 12 -1.</_>
        <_>
          2 11 9 4 3.</_></rects>
      <tilted>0</tilted></_>
    <_>
      <rects>
        <_>
          3 0 17 20 -1.</_>
        <_>
          3 5 17 10 2.</_></rects>
      <tilted>0</tilted></_>
    <_>
      <rects>
        <_>
          3 7 8 12 -1.</_>
        <_>
          3 11 8 4 3.</_></rects>
      <tilted>0</tilted></_>
    <_>
      <rects>
        <_>
          3 8 15 6 -1.</_>
        <_>
          8 10 5 2 9.</_></rects>
      <tilted>0</tilted></_>
    <_>
      <rects>
        <_>
          4 0 16 20 -1.</_>
        <_>
          4 5 16 10 2.</_></rects>
      <tilted>0</tilted></_>
    <_>
      <rects>
        <_>
          4 4 9 16 -1.</_>
        <_>
          4 8 9 8 2.</_></rects>
      <tilted>0</tilted></_>
    <_>
      <rects>
        <_>
          4 4 10 16 -1.</_>
        <_>
          4 8 10 8 2.</_></rects>
      <tilted>0</tilted></_>
    <_>
      <rects>
        <_>
          4 5 12 1 -1.</_>
        <_>
          7 8 6 1 2.</_></rects>
      <tilted>1</tilted></_>
    <_>
      <rects>
        <_>
          4 5 10 15 -1.</_>
        <_>
          4 10 10 5 3.</_></rects>
      <tilted>0</tilted></_>
    <_>
      <rects>
        <_>
          4 5 11 15 -1.</_>
        <_>
          4 10 11 5 3.</_></rects>
      <tilted>0</tilted></_>
    <_>
      <rects>
        <_>
          5 4 11 15 -1.</_>
        <_>
          5 9 11 5 3.</_></rects>
      <tilted>0</tilted></_>
    <_>
      <rects>
        <_>
          5 7 3 1 -1.</_>
        <_>
          6 7 1 1 3.</_></rects>
      <tilted>0</tilted></_>
    <_>
      <rects>
        <_>
          6 4 11 15 -1.</_>
        <_>
          6 9 11 5 3.</_></rects>
      <tilted>0</tilted></_>
    <_>
      <rects>
        <_>
          6 8 2 1 -1.</_>
        <_>
          7 8 1 1 2.</_></rects>
      <tilted>0</tilted></_>
    <_>
      <rects>
        <_>
          6 8 4 1 -1.</_>
        <_>
          7 8 2 1 2.</_></rects>
      <tilted>0</tilted></_>
    <_>
      <rects>
        <_>
          7 0 10 12 -1.</_>
        <_>
          7 4 10 4 3.</_></rects>
      <tilted>0</tilted></_>
    <_>
      <rects>
        <_>
          7 3 2 6 -1.</_>
        <_>
          8 3 1 6 2.</_></rects>
      <tilted>0</tilted></_>
    <_>
      <rects>
        <_>
          7 6 2 6 -1.</_>
        <_>
          7 9 2 3 2.</_></rects>
      <tilted>0</tilted></_>
    <_>
      <rects>
        <_>
          7 7 6 2 -1.</_>
        <_>
          9 7 2 2 3.</_></rects>
      <tilted>0</tilted></_>
    <_>
      <rects>
        <_>
          7 8 6 3 -1.</_>
        <_>
          9 9 2 1 9.</_></rects>
      <tilted>0</tilted></_>
    <_>
      <rects>
        <_>
          7 9 3 1 -1.</_>
        <_>
          8 9 1 1 3.</_></rects>
      <tilted>0</tilted></_>
    <_>
      <rects>
        <_>
          8 1 6 5 -1.</_>
        <_>
          10 1 2 5 3.</_></rects>
      <tilted>0</tilted></_>
    <_>
      <rects>
        <_>
          8 9 3 1 -1.</_>
        <_>
          9 9 1 1 3.</_></rects>
      <tilted>0</tilted></_>
    <_>
      <rects>
        <_>
          9 7 4 13 -1.</_>
        <_>
          10 7 2 13 2.</_></rects>
      <tilted>0</tilted></_>
    <_>
      <rects>
        <_>
          9 9 2 1 -1.</_>
        <_>
          10 9 1 1 2.</_></rects>
      <tilted>0</tilted></_>
    <_>
      <rects>
        <_>
          9 14 2 1 -1.</_>
        <_>
          10 14 1 1 2.</_></rects>
      <tilted>0</tilted></_>
    <_>
      <rects>
        <_>
          10 1 8 1 -1.</_>
        <_>
          12 1 4 1 2.</_></rects>
      <tilted>0</tilted></_>
    <_>
      <rects>
        <_>
          10 2 10 18 -1.</_>
        <_>
          10 8 10 6 3.</_></rects>
      <tilted>0</tilted></_>
    <_>
      <rects>
        <_>
          10 4 3 3 -1.</_>
        <_>
          11 4 1 3 3.</_></rects>
      <tilted>0</tilted></_>
    <_>
      <rects>
        <_>
          10 5 3 4 -1.</_>
        <_>
          11 5 1 4 3.</_></rects>
      <tilted>0</tilted></_>
    <_>
      <rects>
        <_>
          11 4 3 8 -1.</_>
        <_>
          12 4 1 8 3.</_></rects>
      <tilted>0</tilted></_>
    <_>
      <rects>
        <_>
          11 5 2 1 -1.</_>
        <_>
          12 5 1 1 2.</_></rects>
      <tilted>0</tilted></_>
    <_>
      <rects>
        <_>
          11 6 3 4 -1.</_>
        <_>
          12 6 1 4 3.</_></rects>
      <tilted>0</tilted></_>
    <_>
      <rects>
        <_>
          11 6 8 3 -1.</_>
        <_>
          13 8 4 3 2.</_></rects>
      <tilted>1</tilted></_>
    <_>
      <rects>
        <_>
          12 2 8 10 -1.</_>
        <_>
          14 4 4 10 2.</_></rects>
      <tilted>1</tilted></_>
    <_>
      <rects>
        <_>
          12 2 7 18 -1.</_>
        <_>
          12 8 7 6 3.</_></rects>
      <tilted>0</tilted></_>
    <_>
      <rects>
        <_>
          13 3 3 1 -1.</_>
        <_>
          14 3 1 1 3.</_></rects>
      <tilted>0</tilted></_>
    <_>
      <rects>
        <_>
          14 2 6 18 -1.</_>
        <_>
          14 8 6 6 3.</_></rects>
      <tilted>0</tilted></_>
    <_>
      <rects>
        <_>
          16 1 4 18 -1.</_>
        <_>
          16 7 4 6 3.</_></rects>
      <tilted>0</tilted></_></features></cascade>
</opencv_storage>
