<?xml version="1.0"?>
<opencv_storage>
<cascade>
  <stageType>BOOST</stageType>
  <featureType>HAAR</featureType>
  <height>20</height>
  <width>20</width>
  <stageParams>
    <boostType>GAB</boostType>
    <minHitRate>9.9500000476837158e-01</minHitRate>
    <maxFalseAlarm>5.0000000000000000e-01</maxFalseAlarm>
    <weightTrimRate>9.4999999999999996e-01</weightTrimRate>
    <maxDepth>1</maxDepth>
    <maxWeakCount>100</maxWeakCount></stageParams>
  <featureParams>
    <maxCatCount>0</maxCatCount>
    <featSize>1</featSize>
    <mode>BASIC</mode></featureParams>
  <stageNum>11</stageNum>
  <stages>
    <!-- stage 0 -->
    <_>
      <maxWeakCount>2</maxWeakCount>
      <stageThreshold>-5.1565766334533691e-01</stageThreshold>
      <weakClassifiers>
        <_>
          <internalNodes>
            0 -1 14 1.4623904135078192e-03</internalNodes>
          <leafValues>
            -9.8329854011535645e-01 4.4554454088211060e-01</leafValues></_>
        <_>
          <internalNodes>
            0 -1 9 1.2798834592103958e-02</internalNodes>
          <leafValues>
            -9.2513513565063477e-01 4.6764084696769714e-01</leafValues></_></weakClassifiers></_>
    <!-- stage 1 -->
    <_>
      <maxWeakCount>2</maxWeakCount>
      <stageThreshold>-5.6036341190338135e-01</stageThreshold>
      <weakClassifiers>
        <_>
          <internalNodes>
            0 -1 2 6.2531411647796631e-02</internalNodes>
          <leafValues>
            -9.1666668653488159e-01 4.5762711763381958e-01</leafValues></_>
        <_>
          <internalNodes>
            0 -1 38 -4.3808130430988967e-04</internalNodes>
          <leafValues>
            3.5630327463150024e-01 -9.9386388063430786e-01</leafValues></_></weakClassifiers></_>
    <!-- stage 2 -->
    <_>
      <maxWeakCount>5</maxWeakCount>
      <stageThreshold>-1.7616207599639893e+00</stageThreshold>
      <weakClassifiers>
        <_>
          <internalNodes>
            0 -1 1 2.3899948224425316e-02</internalNodes>
          <leafValues>
            -7.6124566793441772e-01 5.7281553745269775e-01</leafValues></_>
        <_>
          <internalNodes>
            0 -1 34 -2.2822094615548849e-04</internalNodes>
          <leafValues>
            3.0587795376777649e-01 -9.6346932649612427e-01</leafValues></_>
        <_>
          <internalNodes>
            0 -1 24 -1.1006397107848898e-04</internalNodes>
          <leafValues>
            2.9425159096717834e-01 -9.6845835447311401e-01</leafValues></_>
        <_>
          <internalNodes>
            0 -1 36 -8.3805397152900696e-03</internalNodes>
          <leafValues>
            4.9161061644554138e-01 -7.4039530754089355e-01</leafValues></_>
        <_>
          <internalNodes>
            0 -1 11 4.8924885049927980e-05</internalNodes>
          <leafValues>
            -1. 4.0923789143562317e-01</leafValues></_></weakClassifiers></_>
    <!-- stage 3 -->
    <_>
      <maxWeakCount>4</maxWeakCount>
      <stageThreshold>-1.2177442312240601e+00</stageThreshold>
      <weakClassifiers>
        <_>
          <internalNodes>
            0 -1 13 5.3497366607189178e-03</internalNodes>
          <leafValues>
            -7.8888887166976929e-01 3.1914892792701721e-01</leafValues></_>
        <_>
          <internalNodes>
            0 -1 15 1.1184592731297016e-03</internalNodes>
          <leafValues>
            -9.9068450927734375e-01 1.9264003634452820e-01</leafValues></_>
        <_>
          <internalNodes>
            0 -1 5 1.0259138420224190e-02</internalNodes>
          <leafValues>
            -9.1841846704483032e-01 3.5385850071907043e-01</leafValues></_>
        <_>
          <internalNodes>
            0 -1 19 -5.2599982154788449e-05</internalNodes>
          <leafValues>
            2.9692307114601135e-01 -9.4276636838912964e-01</leafValues></_></weakClassifiers></_>
    <!-- stage 4 -->
    <_>
      <maxWeakCount>5</maxWeakCount>
      <stageThreshold>-9.9275565147399902e-01</stageThreshold>
      <weakClassifiers>
        <_>
          <internalNodes>
            0 -1 13 5.3444337099790573e-03</internalNodes>
          <leafValues>
            -7.9044115543365479e-01 3.5766422748565674e-01</leafValues></_>
        <_>
          <internalNodes>
            0 -1 23 -3.3570036757737398e-03</internalNodes>
          <leafValues>
            2.5735461711883545e-01 -8.8526213169097900e-01</leafValues></_>
        <_>
          <internalNodes>
            0 -1 18 -4.6454947441816330e-03</internalNodes>
          <leafValues>
            -9.4497746229171753e-01 2.6973727345466614e-01</leafValues></_>
        <_>
          <internalNodes>
            0 -1 16 -9.6814750577323139e-05</internalNodes>
          <leafValues>
            -9.3257087469100952e-01 2.8364479541778564e-01</leafValues></_>
        <_>
          <internalNodes>
            0 -1 21 7.6589448144659400e-04</internalNodes>
          <leafValues>
            2.8151887655258179e-01 -9.4644176959991455e-01</leafValues></_></weakClassifiers></_>
    <!-- stage 5 -->
    <_>
      <maxWeakCount>2</maxWeakCount>
      <stageThreshold>-7.0133572816848755e-01</stageThreshold>
      <weakClassifiers>
        <_>
          <internalNodes>
            0 -1 12 -7.5491314055398107e-04</internalNodes>
          <leafValues>
            2.8915661573410034e-01 -8.3300971984863281e-01</leafValues></_>
        <_>
          <internalNodes>
            0 -1 8 4.6407720074057579e-03</internalNodes>
          <leafValues>
            -9.9049234390258789e-01 1.6727274656295776e-01</leafValues></_></weakClassifiers></_>
    <!-- stage 6 -->
    <_>
      <maxWeakCount>2</maxWeakCount>
      <stageThreshold>-3.9471015334129333e-01</stageThreshold>
      <weakClassifiers>
        <_>
          <internalNodes>
            0 -1 37 -3.7391404621303082e-03</internalNodes>
          <leafValues>
            5.9523808956146240e-01 -7.2194302082061768e-01</leafValues></_>
        <_>
          <internalNodes>
            0 -1 33 -2.1342938998714089e-04</internalNodes>
          <leafValues>
            3.2723289728164673e-01 -9.8752880096435547e-01</leafValues></_></weakClassifiers></_>
    <!-- stage 7 -->
    <_>
      <maxWeakCount>5</maxWeakCount>
      <stageThreshold>-1.4053347110748291e+00</stageThreshold>
      <weakClassifiers>
        <_>
          <internalNodes>
            0 -1 29 -3.9095785468816757e-03</internalNodes>
          <leafValues>
            4.0000000596046448e-01 -7.2461271286010742e-01</leafValues></_>
        <_>
          <internalNodes>
            0 -1 39 -8.1015564501285553e-03</internalNodes>
          <leafValues>
            4.1769412159919739e-01 -6.4729154109954834e-01</leafValues></_>
        <_>
          <internalNodes>
            0 -1 10 -2.1352720068534836e-05</internalNodes>
          <leafValues>
            3.6061638593673706e-01 -7.8911709785461426e-01</leafValues></_>
        <_>
          <internalNodes>
            0 -1 4 1.3565329136326909e-03</internalNodes>
          <leafValues>
            -6.7331218719482422e-01 4.3673789501190186e-01</leafValues></_>
        <_>
          <internalNodes>
            0 -1 25 -7.6673008152283728e-05</internalNodes>
          <leafValues>
            3.1894871592521667e-01 -9.8118114471435547e-01</leafValues></_></weakClassifiers></_>
    <!-- stage 8 -->
    <_>
      <maxWeakCount>4</maxWeakCount>
      <stageThreshold>-9.4170701503753662e-01</stageThreshold>
      <weakClassifiers>
        <_>
          <internalNodes>
            0 -1 0 1.5539540350437164e-01</internalNodes>
          <leafValues>
            -7.0909088850021362e-01 6.3157892227172852e-01</leafValues></_>
        <_>
          <internalNodes>
            0 -1 30 -1.2558745220303535e-03</internalNodes>
          <leafValues>
            -8.5741692781448364e-01 2.9515224695205688e-01</leafValues></_>
        <_>
          <internalNodes>
            0 -1 28 -3.8246397161856294e-04</internalNodes>
          <leafValues>
            -8.5002994537353516e-01 2.7270427346229553e-01</leafValues></_>
        <_>
          <internalNodes>
            0 -1 32 -5.4366428230423480e-05</internalNodes>
          <leafValues>
            3.5209655761718750e-01 -7.7868741750717163e-01</leafValues></_></weakClassifiers></_>
    <!-- stage 9 -->
    <_>
      <maxWeakCount>6</maxWeakCount>
      <stageThreshold>-1.5599527359008789e+00</stageThreshold>
      <weakClassifiers>
        <_>
          <internalNodes>
            0 -1 17 3.3750901930034161e-03</internalNodes>
          <leafValues>
            -6.7699837684631348e-01 5.0000000000000000e-01</leafValues></_>
        <_>
          <internalNodes>
            0 -1 20 5.5511610116809607e-04</internalNodes>
          <leafValues>
            2.1500568091869354e-01 -7.5943756103515625e-01</leafValues></_>
        <_>
          <internalNodes>
            0 -1 26 -4.5723652874585241e-05</internalNodes>
          <leafValues>
            1.9490499794483185e-01 -9.3912285566329956e-01</leafValues></_>
        <_>
          <internalNodes>
            0 -1 31 4.5850119204260409e-04</internalNodes>
          <leafValues>
            -6.9296592473983765e-01 3.3563050627708435e-01</leafValues></_>
        <_>
          <internalNodes>
            0 -1 7 7.7528890687972307e-04</internalNodes>
          <leafValues>
            2.4370814859867096e-01 -8.6715078353881836e-01</leafValues></_>
        <_>
          <internalNodes>
            0 -1 6 1.6974834725260735e-03</internalNodes>
          <leafValues>
            -9.4284558296203613e-01 2.1309845149517059e-01</leafValues></_></weakClassifiers></_>
    <!-- stage 10 -->
    <_>
      <maxWeakCount>6</maxWeakCount>
      <stageThreshold>-1.1502509117126465e+00</stageThreshold>
      <weakClassifiers>
        <_>
          <internalNodes>
            0 -1 35 4.4139949604868889e-03</internalNodes>
          <leafValues>
            -6.8646866083145142e-01 4.6666666865348816e-01</leafValues></_>
        <_>
          <internalNodes>
            0 -1 27 -1.7516685184091330e-03</internalNodes>
          <leafValues>
            -8.8148164749145508e-01 1.9879803061485291e-01</leafValues></_>
        <_>
          <internalNodes>
            0 -1 12 -8.0083246575668454e-04</internalNodes>
          <leafValues>
            4.4446966052055359e-01 -4.8469525575637817e-01</leafValues></_>
        <_>
          <internalNodes>
            0 -1 22 -1.0643519461154938e-02</internalNodes>
          <leafValues>
            5.0188279151916504e-01 -5.2745258808135986e-01</leafValues></_>
        <_>
          <internalNodes>
            0 -1 40 -2.5925668523996137e-05</internalNodes>
          <leafValues>
            2.5376307964324951e-01 -9.8891800642013550e-01</leafValues></_>
        <_>
          <internalNodes>
            0 -1 3 1.1370500578777865e-04</internalNodes>
          <leafValues>
            -7.2499024868011475e-01 2.4691925942897797e-01</leafValues></_></weakClassifiers></_></stages>
  <features>
    <_>
      <rects>
        <_>
          3 6 14 12 -1.</_>
        <_>
          3 10 14 4 3.</_></rects>
      <tilted>0</tilted></_>
    <_>
      <rects>
        <_>
          4 6 12 1 -1.</_>
        <_>
          8 6 4 1 3.</_></rects>
      <tilted>0</tilted></_>
    <_>
      <rects>
        <_>
          4 7 12 6 -1.</_>
        <_>
          8 7 4 6 3.</_></rects>
      <tilted>0</tilted></_>
    <_>
      <rects>
        <_>
          5 9 2 2 -1.</_>
        <_>
          6 9 1 2 2.</_></rects>
      <tilted>0</tilted></_>
    <_>
      <rects>
        <_>
          6 5 1 6 -1.</_>
        <_>
          6 8 1 3 2.</_></rects>
      <tilted>0</tilted></_>
    <_>
      <rects>
        <_>
          6 5 7 6 -1.</_>
        <_>
          6 8 7 3 2.</_></rects>
      <tilted>0</tilted></_>
    <_>
      <rects>
        <_>
          6 9 6 2 -1.</_>
        <_>
          8 9 2 2 3.</_></rects>
      <tilted>0</tilted></_>
    <_>
      <rects>
        <_>
          6 10 2 1 -1.</_>
        <_>
          7 10 1 1 2.</_></rects>
      <tilted>0</tilted></_>
    <_>
      <rects>
        <_>
          6 10 8 2 -1.</_>
        <_>
          10 10 4 2 2.</_></rects>
      <tilted>0</tilted></_>
    <_>
      <rects>
        <_>
          7 5 6 4 -1.</_>
        <_>
          7 7 6 2 2.</_></rects>
      <tilted>0</tilted></_>
    <_>
      <rects>
        <_>
          7 8 1 2 -1.</_>
        <_>
          7 9 1 1 2.</_></rects>
      <tilted>0</tilted></_>
    <_>
      <rects>
        <_>
          7 10 2 1 -1.</_>
        <_>
          8 10 1 1 2.</_></rects>
      <tilted>0</tilted></_>
    <_>
      <rects>
        <_>
          7 10 3 1 -1.</_>
        <_>
          8 10 1 1 3.</_></rects>
      <tilted>0</tilted></_>
    <_>
      <rects>
        <_>
          8 5 4 3 -1.</_>
        <_>
          8 6 4 1 3.</_></rects>
      <tilted>0</tilted></_>
    <_>
      <rects>
        <_>
          8 9 2 2 -1.</_>
        <_>
          9 9 1 2 2.</_></rects>
      <tilted>0</tilted></_>
    <_>
      <rects>
        <_>
          8 9 3 2 -1.</_>
        <_>
          9 9 1 2 3.</_></rects>
      <tilted>0</tilted></_>
    <_>
      <rects>
        <_>
          8 10 6 1 -1.</_>
        <_>
          11 10 3 1 2.</_></rects>
      <tilted>0</tilted></_>
    <_>
      <rects>
        <_>
          9 4 1 3 -1.</_>
        <_>
          9 5 1 1 3.</_></rects>
      <tilted>0</tilted></_>
    <_>
      <rects>
        <_>
          9 8 2 4 -1.</_>
        <_>
          9 10 2 2 2.</_></rects>
      <tilted>0</tilted></_>
    <_>
      <rects>
        <_>
          9 9 1 2 -1.</_>
        <_>
          9 10 1 1 2.</_></rects>
      <tilted>0</tilted></_>
    <_>
      <rects>
        <_>
          9 9 2 3 -1.</_>
        <_>
          10 9 1 3 2.</_></rects>
      <tilted>0</tilted></_>
    <_>
      <rects>
        <_>
          9 10 4 2 -1.</_>
        <_>
          11 10 2 2 2.</_></rects>
      <tilted>0</tilted></_>
    <_>
      <rects>
        <_>
          10 6 9 3 -1.</_>
        <_>
          13 6 3 3 3.</_></rects>
      <tilted>0</tilted></_>
    <_>
      <rects>
        <_>
          10 7 4 6 -1.</_>
        <_>
          12 7 2 6 2.</_></rects>
      <tilted>0</tilted></_>
    <_>
      <rects>
        <_>
          10 8 2 2 -1.</_>
        <_>
          10 9 2 1 2.</_></rects>
      <tilted>0</tilted></_>
    <_>
      <rects>
        <_>
          10 8 3 2 -1.</_>
        <_>
          10 9 3 1 2.</_></rects>
      <tilted>0</tilted></_>
    <_>
      <rects>
        <_>
          10 9 1 2 -1.</_>
        <_>
          10 10 1 1 2.</_></rects>
      <tilted>0</tilted></_>
    <_>
      <rects>
        <_>
          10 9 4 1 -1.</_>
        <_>
          12 9 2 1 2.</_></rects>
      <tilted>0</tilted></_>
    <_>
      <rects>
        <_>
          10 9 3 3 -1.</_>
        <_>
          10 10 3 1 3.</_></rects>
      <tilted>0</tilted></_>
    <_>
      <rects>
        <_>
          11 5 3 2 -1.</_>
        <_>
          12 5 1 2 3.</_></rects>
      <tilted>0</tilted></_>
    <_>
      <rects>
        <_>
          11 5 2 8 -1.</_>
        <_>
          11 9 2 4 2.</_></rects>
      <tilted>0</tilted></_>
    <_>
      <rects>
        <_>
          11 8 3 6 -1.</_>
        <_>
          11 10 3 2 3.</_></rects>
      <tilted>0</tilted></_>
    <_>
      <rects>
        <_>
          11 9 2 1 -1.</_>
        <_>
          12 9 1 1 2.</_></rects>
      <tilted>0</tilted></_>
    <_>
      <rects>
        <_>
          11 9 2 2 -1.</_>
        <_>
          11 10 2 1 2.</_></rects>
      <tilted>0</tilted></_>
    <_>
      <rects>
        <_>
          11 11 2 2 -1.</_>
        <_>
          11 12 2 1 2.</_></rects>
      <tilted>0</tilted></_>
    <_>
      <rects>
        <_>
          11 13 4 2 -1.</_>
        <_>
          11 13 2 1 2.</_>
        <_>
          13 14 2 1 2.</_></rects>
      <tilted>0</tilted></_>
    <_>
      <rects>
        <_>
          12 0 2 12 -1.</_>
        <_>
          12 4 2 4 3.</_></rects>
      <tilted>0</tilted></_>
    <_>
      <rects>
        <_>
          12 5 1 3 -1.</_>
        <_>
          12 6 1 1 3.</_></rects>
      <tilted>0</tilted></_>
    <_>
      <rects>
        <_>
          12 8 1 4 -1.</_>
        <_>
          12 10 1 2 2.</_></rects>
      <tilted>0</tilted></_>
    <_>
      <rects>
        <_>
          13 0 1 12 -1.</_>
        <_>
          13 4 1 4 3.</_></rects>
      <tilted>0</tilted></_>
    <_>
      <rects>
        <_>
          13 10 1 2 -1.</_>
        <_>
          13 11 1 1 2.</_></rects>
      <tilted>0</tilted></_></features></cascade>
</opencv_storage>
