<?xml version="1.0"?>
<opencv_storage>
<cascade>
  <stageType>BOOST</stageType>
  <featureType>HAAR</featureType>
  <height>20</height>
  <width>20</width>
  <stageParams>
    <boostType>GAB</boostType>
    <minHitRate>9.9500000476837158e-01</minHitRate>
    <maxFalseAlarm>5.0000000000000000e-01</maxFalseAlarm>
    <weightTrimRate>9.4999999999999996e-01</weightTrimRate>
    <maxDepth>1</maxDepth>
    <maxWeakCount>100</maxWeakCount></stageParams>
  <featureParams>
    <maxCatCount>0</maxCatCount>
    <featSize>1</featSize>
    <mode>ALL</mode></featureParams>
  <stageNum>13</stageNum>
  <stages>
    <!-- stage 0 -->
    <_>
      <maxWeakCount>2</maxWeakCount>
      <stageThreshold>-7.1090048551559448e-01</stageThreshold>
      <weakClassifiers>
        <_>
          <internalNodes>
            0 -1 30 -1.2033707025693730e-04</internalNodes>
          <leafValues>
            1.9384615123271942e-01 -9.6799999475479126e-01</leafValues></_>
        <_>
          <internalNodes>
            0 -1 8 -3.0576810240745544e-03</internalNodes>
          <leafValues>
            4.1056632995605469e-01 -9.0474659204483032e-01</leafValues></_></weakClassifiers></_>
    <!-- stage 1 -->
    <_>
      <maxWeakCount>2</maxWeakCount>
      <stageThreshold>-4.4406399130821228e-01</stageThreshold>
      <weakClassifiers>
        <_>
          <internalNodes>
            0 -1 47 8.1350445747375488e-02</internalNodes>
          <leafValues>
            -7.9567778110504150e-01 5.4973822832107544e-01</leafValues></_>
        <_>
          <internalNodes>
            0 -1 43 2.6108772726729512e-04</internalNodes>
          <leafValues>
            -9.9380224943161011e-01 3.5564693808555603e-01</leafValues></_></weakClassifiers></_>
    <!-- stage 2 -->
    <_>
      <maxWeakCount>3</maxWeakCount>
      <stageThreshold>-6.0136270523071289e-01</stageThreshold>
      <weakClassifiers>
        <_>
          <internalNodes>
            0 -1 29 3.2110230677062646e-05</internalNodes>
          <leafValues>
            -9.8130840063095093e-01 3.9577838033437729e-02</leafValues></_>
        <_>
          <internalNodes>
            0 -1 24 -2.1186555386520922e-05</internalNodes>
          <leafValues>
            2.3788248002529144e-01 -9.6991449594497681e-01</leafValues></_>
        <_>
          <internalNodes>
            0 -1 38 3.9122782647609711e-02</internalNodes>
          <leafValues>
            3.6211627721786499e-01 -8.7882304191589355e-01</leafValues></_></weakClassifiers></_>
    <!-- stage 3 -->
    <_>
      <maxWeakCount>2</maxWeakCount>
      <stageThreshold>-4.4537341594696045e-01</stageThreshold>
      <weakClassifiers>
        <_>
          <internalNodes>
            0 -1 49 3.2283030450344086e-03</internalNodes>
          <leafValues>
            -7.0902395248413086e-01 5.4140126705169678e-01</leafValues></_>
        <_>
          <internalNodes>
            0 -1 23 -1.1057464871555567e-04</internalNodes>
          <leafValues>
            3.3148789405822754e-01 -9.8677468299865723e-01</leafValues></_></weakClassifiers></_>
    <!-- stage 4 -->
    <_>
      <maxWeakCount>2</maxWeakCount>
      <stageThreshold>-6.1252772808074951e-01</stageThreshold>
      <weakClassifiers>
        <_>
          <internalNodes>
            0 -1 28 1.6372554455301724e-05</internalNodes>
          <leafValues>
            -9.5225465297698975e-01 1.8266253173351288e-01</leafValues></_>
        <_>
          <internalNodes>
            0 -1 44 -1.1695586144924164e-03</internalNodes>
          <leafValues>
            3.9978635311126709e-01 -7.9519027471542358e-01</leafValues></_></weakClassifiers></_>
    <!-- stage 5 -->
    <_>
      <maxWeakCount>4</maxWeakCount>
      <stageThreshold>-1.0118203163146973e+00</stageThreshold>
      <weakClassifiers>
        <_>
          <internalNodes>
            0 -1 3 1.1316491663455963e-01</internalNodes>
          <leafValues>
            -7.8213506937026978e-01 2.4481327831745148e-01</leafValues></_>
        <_>
          <internalNodes>
            0 -1 6 -2.3729025851935148e-03</internalNodes>
          <leafValues>
            5.0691229104995728e-01 -6.5068739652633667e-01</leafValues></_>
        <_>
          <internalNodes>
            0 -1 25 4.7701684525236487e-04</internalNodes>
          <leafValues>
            3.0113694071769714e-01 -1.</leafValues></_>
        <_>
          <internalNodes>
            0 -1 16 -1.1071385815739632e-03</internalNodes>
          <leafValues>
            -9.0708309412002563e-01 2.8589043021202087e-01</leafValues></_></weakClassifiers></_>
    <!-- stage 6 -->
    <_>
      <maxWeakCount>5</maxWeakCount>
      <stageThreshold>-1.4496043920516968e+00</stageThreshold>
      <weakClassifiers>
        <_>
          <internalNodes>
            0 -1 48 5.8370446786284447e-03</internalNodes>
          <leafValues>
            -7.2102159261703491e-01 3.5078534483909607e-01</leafValues></_>
        <_>
          <internalNodes>
            0 -1 19 1.9853105186484754e-04</internalNodes>
          <leafValues>
            -9.8212909698486328e-01 2.3826031386852264e-01</leafValues></_>
        <_>
          <internalNodes>
            0 -1 26 9.7070075571537018e-03</internalNodes>
          <leafValues>
            -5.6412047147750854e-01 5.9034562110900879e-01</leafValues></_>
        <_>
          <internalNodes>
            0 -1 50 -8.6611573351547122e-05</internalNodes>
          <leafValues>
            4.1675674915313721e-01 -7.0783668756484985e-01</leafValues></_>
        <_>
          <internalNodes>
            0 -1 20 -5.1713548600673676e-05</internalNodes>
          <leafValues>
            3.0511415004730225e-01 -9.6562010049819946e-01</leafValues></_></weakClassifiers></_>
    <!-- stage 7 -->
    <_>
      <maxWeakCount>4</maxWeakCount>
      <stageThreshold>-1.1941397190093994e+00</stageThreshold>
      <weakClassifiers>
        <_>
          <internalNodes>
            0 -1 18 -1.8984008580446243e-02</internalNodes>
          <leafValues>
            -8.9717221260070801e-01 1.5755626559257507e-01</leafValues></_>
        <_>
          <internalNodes>
            0 -1 42 -1.5193547005765140e-04</internalNodes>
          <leafValues>
            3.2382354140281677e-01 -8.1709086894989014e-01</leafValues></_>
        <_>
          <internalNodes>
            0 -1 14 -4.6040519373491406e-04</internalNodes>
          <leafValues>
            2.3539690673351288e-01 -9.6866720914840698e-01</leafValues></_>
        <_>
          <internalNodes>
            0 -1 39 2.3319462779909372e-03</internalNodes>
          <leafValues>
            3.4787619113922119e-01 -9.5043838024139404e-01</leafValues></_></weakClassifiers></_>
    <!-- stage 8 -->
    <_>
      <maxWeakCount>5</maxWeakCount>
      <stageThreshold>-1.0200763940811157e+00</stageThreshold>
      <weakClassifiers>
        <_>
          <internalNodes>
            0 -1 0 9.1525830328464508e-02</internalNodes>
          <leafValues>
            -7.9462105035781860e-01 8.5910655558109283e-02</leafValues></_>
        <_>
          <internalNodes>
            0 -1 34 3.0596932629123330e-04</internalNodes>
          <leafValues>
            -9.8815339803695679e-01 2.0400778949260712e-01</leafValues></_>
        <_>
          <internalNodes>
            0 -1 36 -1.3170635793358088e-04</internalNodes>
          <leafValues>
            2.4929831922054291e-01 -8.6964565515518188e-01</leafValues></_>
        <_>
          <internalNodes>
            0 -1 40 -2.7468218468129635e-04</internalNodes>
          <leafValues>
            3.7314400076866150e-01 -6.9773721694946289e-01</leafValues></_>
        <_>
          <internalNodes>
            0 -1 17 1.1489788070321083e-02</internalNodes>
          <leafValues>
            -7.5851392745971680e-01 3.3060517907142639e-01</leafValues></_></weakClassifiers></_>
    <!-- stage 9 -->
    <_>
      <maxWeakCount>5</maxWeakCount>
      <stageThreshold>-1.0212539434432983e+00</stageThreshold>
      <weakClassifiers>
        <_>
          <internalNodes>
            0 -1 21 2.7101696468889713e-03</internalNodes>
          <leafValues>
            -6.6339068114757538e-02 -9.3174064159393311e-01</leafValues></_>
        <_>
          <internalNodes>
            0 -1 10 3.3068638294935226e-02</internalNodes>
          <leafValues>
            -6.1202502250671387e-01 3.6347803473472595e-01</leafValues></_>
        <_>
          <internalNodes>
            0 -1 37 -3.5145658330293372e-05</internalNodes>
          <leafValues>
            3.5706177353858948e-01 -7.9830354452133179e-01</leafValues></_>
        <_>
          <internalNodes>
            0 -1 7 -7.7433707192540169e-03</internalNodes>
          <leafValues>
            3.5778680443763733e-01 -7.5569659471511841e-01</leafValues></_>
        <_>
          <internalNodes>
            0 -1 35 -2.4137950967997313e-03</internalNodes>
          <leafValues>
            -9.9049907922744751e-01 2.3560717701911926e-01</leafValues></_></weakClassifiers></_>
    <!-- stage 10 -->
    <_>
      <maxWeakCount>6</maxWeakCount>
      <stageThreshold>-1.5809129476547241e+00</stageThreshold>
      <weakClassifiers>
        <_>
          <internalNodes>
            0 -1 27 -3.2671722583472729e-03</internalNodes>
          <leafValues>
            2.5000000000000000e-01 -6.7054265737533569e-01</leafValues></_>
        <_>
          <internalNodes>
            0 -1 13 -2.5933462893590331e-04</internalNodes>
          <leafValues>
            2.2877450287342072e-01 -9.0754210948944092e-01</leafValues></_>
        <_>
          <internalNodes>
            0 -1 12 -7.4353753589093685e-03</internalNodes>
          <leafValues>
            -8.3328258991241455e-01 2.5358119606971741e-01</leafValues></_>
        <_>
          <internalNodes>
            0 -1 5 -2.3806132376194000e-03</internalNodes>
          <leafValues>
            3.5602316260337830e-01 -7.1642738580703735e-01</leafValues></_>
        <_>
          <internalNodes>
            0 -1 2 -1.0799483954906464e-01</internalNodes>
          <leafValues>
            -9.2159670591354370e-01 2.6286619901657104e-01</leafValues></_>
        <_>
          <internalNodes>
            0 -1 41 9.1786624398082495e-04</internalNodes>
          <leafValues>
            1.9715176522731781e-01 -9.5275378227233887e-01</leafValues></_></weakClassifiers></_>
    <!-- stage 11 -->
    <_>
      <maxWeakCount>4</maxWeakCount>
      <stageThreshold>-1.0083072185516357e+00</stageThreshold>
      <weakClassifiers>
        <_>
          <internalNodes>
            0 -1 4 -2.2101183421909809e-03</internalNodes>
          <leafValues>
            1.6602316498756409e-01 -7.7777779102325439e-01</leafValues></_>
        <_>
          <internalNodes>
            0 -1 22 -2.8958818875253201e-03</internalNodes>
          <leafValues>
            -8.8775372505187988e-01 1.8511143326759338e-01</leafValues></_>
        <_>
          <internalNodes>
            0 -1 11 8.7563302367925644e-03</internalNodes>
          <leafValues>
            -4.6942842006683350e-01 5.7504916191101074e-01</leafValues></_>
        <_>
          <internalNodes>
            0 -1 33 2.0452073658816516e-04</internalNodes>
          <leafValues>
            2.5863292813301086e-01 -8.9001333713531494e-01</leafValues></_></weakClassifiers></_>
    <!-- stage 12 -->
    <_>
      <maxWeakCount>7</maxWeakCount>
      <stageThreshold>-1.0491448640823364e+00</stageThreshold>
      <weakClassifiers>
        <_>
          <internalNodes>
            0 -1 1 3.7221959792077541e-03</internalNodes>
          <leafValues>
            -7.1142286062240601e-01 2.7363184094429016e-01</leafValues></_>
        <_>
          <internalNodes>
            0 -1 15 -8.4823071956634521e-03</internalNodes>
          <leafValues>
            3.6396121978759766e-01 -6.1706298589706421e-01</leafValues></_>
        <_>
          <internalNodes>
            0 -1 31 9.0303011238574982e-02</internalNodes>
          <leafValues>
            -5.4240351915359497e-01 4.8075011372566223e-01</leafValues></_>
        <_>
          <internalNodes>
            0 -1 45 -2.2934759035706520e-03</internalNodes>
          <leafValues>
            5.3505885601043701e-01 -4.8339998722076416e-01</leafValues></_>
        <_>
          <internalNodes>
            0 -1 32 2.6520122773945332e-03</internalNodes>
          <leafValues>
            2.8700953722000122e-01 -9.0688812732696533e-01</leafValues></_>
        <_>
          <internalNodes>
            0 -1 9 2.5877097505144775e-04</internalNodes>
          <leafValues>
            -4.7661182284355164e-01 5.0422042608261108e-01</leafValues></_>
        <_>
          <internalNodes>
            0 -1 46 -1.1536007747054100e-02</internalNodes>
          <leafValues>
            5.1372259855270386e-01 -4.3711331486701965e-01</leafValues></_></weakClassifiers></_></stages>
  <features>
    <_>
      <rects>
        <_>
          0 2 6 18 -1.</_>
        <_>
          2 8 2 6 9.</_></rects>
      <tilted>0</tilted></_>
    <_>
      <rects>
        <_>
          0 4 3 12 -1.</_>
        <_>
          1 4 1 12 3.</_></rects>
      <tilted>0</tilted></_>
    <_>
      <rects>
        <_>
          0 7 16 9 -1.</_>
        <_>
          8 7 8 9 2.</_></rects>
      <tilted>0</tilted></_>
    <_>
      <rects>
        <_>
          1 2 19 10 -1.</_>
        <_>
          1 7 19 5 2.</_></rects>
      <tilted>0</tilted></_>
    <_>
      <rects>
        <_>
          1 10 8 2 -1.</_>
        <_>
          3 10 4 2 2.</_></rects>
      <tilted>0</tilted></_>
    <_>
      <rects>
        <_>
          2 9 8 3 -1.</_>
        <_>
          4 9 4 3 2.</_></rects>
      <tilted>0</tilted></_>
    <_>
      <rects>
        <_>
          3 5 2 8 -1.</_>
        <_>
          4 5 1 8 2.</_></rects>
      <tilted>0</tilted></_>
    <_>
      <rects>
        <_>
          3 8 9 6 -1.</_>
        <_>
          6 10 3 2 9.</_></rects>
      <tilted>0</tilted></_>
    <_>
      <rects>
        <_>
          3 9 12 3 -1.</_>
        <_>
          6 9 6 3 2.</_></rects>
      <tilted>0</tilted></_>
    <_>
      <rects>
        <_>
          4 7 2 4 -1.</_>
        <_>
          4 7 1 2 2.</_>
        <_>
          5 9 1 2 2.</_></rects>
      <tilted>0</tilted></_>
    <_>
      <rects>
        <_>
          5 8 14 12 -1.</_>
        <_>
          5 11 14 6 2.</_></rects>
      <tilted>0</tilted></_>
    <_>
      <rects>
        <_>
          6 4 9 3 -1.</_>
        <_>
          9 4 3 3 3.</_></rects>
      <tilted>0</tilted></_>
    <_>
      <rects>
        <_>
          6 7 8 4 -1.</_>
        <_>
          6 9 8 2 2.</_></rects>
      <tilted>0</tilted></_>
    <_>
      <rects>
        <_>
          6 8 6 3 -1.</_>
        <_>
          8 9 2 1 9.</_></rects>
      <tilted>0</tilted></_>
    <_>
      <rects>
        <_>
          6 8 8 4 -1.</_>
        <_>
          8 8 4 4 2.</_></rects>
      <tilted>0</tilted></_>
    <_>
      <rects>
        <_>
          6 10 8 6 -1.</_>
        <_>
          6 12 8 2 3.</_></rects>
      <tilted>0</tilted></_>
    <_>
      <rects>
        <_>
          6 11 8 1 -1.</_>
        <_>
          8 11 4 1 2.</_></rects>
      <tilted>0</tilted></_>
    <_>
      <rects>
        <_>
          7 4 9 9 -1.</_>
        <_>
          10 7 3 3 9.</_></rects>
      <tilted>0</tilted></_>
    <_>
      <rects>
        <_>
          7 5 6 12 -1.</_>
        <_>
          7 11 6 6 2.</_></rects>
      <tilted>0</tilted></_>
    <_>
      <rects>
        <_>
          7 8 6 1 -1.</_>
        <_>
          10 8 3 1 2.</_></rects>
      <tilted>0</tilted></_>
    <_>
      <rects>
        <_>
          7 9 2 2 -1.</_>
        <_>
          7 10 2 1 2.</_></rects>
      <tilted>0</tilted></_>
    <_>
      <rects>
        <_>
          7 9 9 3 -1.</_>
        <_>
          10 10 3 1 9.</_></rects>
      <tilted>0</tilted></_>
    <_>
      <rects>
        <_>
          8 7 6 6 -1.</_>
        <_>
          10 9 2 2 9.</_></rects>
      <tilted>0</tilted></_>
    <_>
      <rects>
        <_>
          8 8 2 2 -1.</_>
        <_>
          8 9 2 1 2.</_></rects>
      <tilted>0</tilted></_>
    <_>
      <rects>
        <_>
          8 10 1 2 -1.</_>
        <_>
          8 11 1 1 2.</_></rects>
      <tilted>0</tilted></_>
    <_>
      <rects>
        <_>
          8 10 6 2 -1.</_>
        <_>
          10 10 2 2 3.</_></rects>
      <tilted>0</tilted></_>
    <_>
      <rects>
        <_>
          8 12 3 8 -1.</_>
        <_>
          8 14 3 4 2.</_></rects>
      <tilted>0</tilted></_>
    <_>
      <rects>
        <_>
          8 13 5 3 -1.</_>
        <_>
          8 14 5 1 3.</_></rects>
      <tilted>0</tilted></_>
    <_>
      <rects>
        <_>
          9 9 1 4 -1.</_>
        <_>
          9 10 1 2 2.</_></rects>
      <tilted>0</tilted></_>
    <_>
      <rects>
        <_>
          9 10 2 1 -1.</_>
        <_>
          10 10 1 1 2.</_></rects>
      <tilted>0</tilted></_>
    <_>
      <rects>
        <_>
          9 11 1 2 -1.</_>
        <_>
          9 12 1 1 2.</_></rects>
      <tilted>0</tilted></_>
    <_>
      <rects>
        <_>
          10 3 10 16 -1.</_>
        <_>
          10 7 10 8 2.</_></rects>
      <tilted>0</tilted></_>
    <_>
      <rects>
        <_>
          10 6 3 2 -1.</_>
        <_>
          10 6 3 1 2.</_></rects>
      <tilted>1</tilted></_>
    <_>
      <rects>
        <_>
          10 7 3 3 -1.</_>
        <_>
          11 8 1 3 3.</_></rects>
      <tilted>1</tilted></_>
    <_>
      <rects>
        <_>
          10 8 4 2 -1.</_>
        <_>
          12 8 2 2 2.</_></rects>
      <tilted>0</tilted></_>
    <_>
      <rects>
        <_>
          10 8 4 2 -1.</_>
        <_>
          10 8 2 2 2.</_></rects>
      <tilted>1</tilted></_>
    <_>
      <rects>
        <_>
          10 11 1 2 -1.</_>
        <_>
          10 12 1 1 2.</_></rects>
      <tilted>0</tilted></_>
    <_>
      <rects>
        <_>
          11 7 1 2 -1.</_>
        <_>
          11 8 1 1 2.</_></rects>
      <tilted>0</tilted></_>
    <_>
      <rects>
        <_>
          12 2 6 10 -1.</_>
        <_>
          12 2 6 5 2.</_></rects>
      <tilted>1</tilted></_>
    <_>
      <rects>
        <_>
          12 8 2 2 -1.</_>
        <_>
          12 8 2 1 2.</_></rects>
      <tilted>1</tilted></_>
    <_>
      <rects>
        <_>
          12 11 6 2 -1.</_>
        <_>
          14 11 2 2 3.</_></rects>
      <tilted>0</tilted></_>
    <_>
      <rects>
        <_>
          13 7 1 6 -1.</_>
        <_>
          11 9 1 2 3.</_></rects>
      <tilted>1</tilted></_>
    <_>
      <rects>
        <_>
          13 7 2 3 -1.</_>
        <_>
          14 7 1 3 2.</_></rects>
      <tilted>0</tilted></_>
    <_>
      <rects>
        <_>
          13 8 1 2 -1.</_>
        <_>
          13 8 1 1 2.</_></rects>
      <tilted>1</tilted></_>
    <_>
      <rects>
        <_>
          13 10 6 2 -1.</_>
        <_>
          15 10 2 2 3.</_></rects>
      <tilted>0</tilted></_>
    <_>
      <rects>
        <_>
          14 8 4 6 -1.</_>
        <_>
          15 8 2 6 2.</_></rects>
      <tilted>0</tilted></_>
    <_>
      <rects>
        <_>
          16 2 4 16 -1.</_>
        <_>
          18 2 2 16 2.</_></rects>
      <tilted>0</tilted></_>
    <_>
      <rects>
        <_>
          17 2 3 18 -1.</_>
        <_>
          18 8 1 6 9.</_></rects>
      <tilted>0</tilted></_>
    <_>
      <rects>
        <_>
          17 6 3 9 -1.</_>
        <_>
          18 6 1 9 3.</_></rects>
      <tilted>0</tilted></_>
    <_>
      <rects>
        <_>
          17 10 3 3 -1.</_>
        <_>
          18 10 1 3 3.</_></rects>
      <tilted>0</tilted></_>
    <_>
      <rects>
        <_>
          18 1 2 10 -1.</_>
        <_>
          18 1 2 5 2.</_></rects>
      <tilted>1</tilted></_></features></cascade>
</opencv_storage>
